{
  "main_weights": [
    -0.036433785420029556,
    -0.07248340542236302,
    0.0006217025211827752,
    0.09616200555771014,
    -0.06830836983122203,
    0.11334409932922043,
    0.21306300889955102,
    0.002924340035325044
  ],
  "target_weights": [
    -0.036433785420029556,
    -0.07248340542236302,
    0.0006217025211827752,
    0.09616200555771014,
    -0.06830836983122203,
    0.11334409932922043,
    0.21306300889955102,
    0.002924340035325044
  ],
  "num_features": 8,
  "learning_rate": 0.01,
  "epsilon": 0.2970075,
  "gamma": 0.9,
  "training_episodes": 100,
  "total_updates": 0,
  "target_updates": 0,
  "adaptive_timing": {
    "transition_points": [
      0.7,
      0.29073
    ],
    "urgency_levels": [
      0.05365182085720825,
      0.7099083831208624,
      0.8582578126825926
    ],
    "score_gap_modifier": 0.14922999999999997,
    "rack_quality_modifier": 0.05,
    "opponent_modifier": 0.0
  },
  "adaptive_tiles": {
    "strategic_multipliers": {
      "A": 0.8214187312964113,
      "B": 0.6488656737264181,
      "C": 0.7175405412808747,
      "D": 0.6709589786725302,
      "E": 0.7943476640303506,
      "F": 0.6277527919597996,
      "G": 0.6956834737192249,
      "H": 0.5761427599021504,
      "I": 0.8469870737022841,
      "J": 0.43990044401112444,
      "K": 0.6495042368647841,
      "L": 0.8732212609476454,
      "M": 0.807621032109129,
      "N": 0.8968296295405719,
      "O": 0.8517255194670976,
      "P": 0.5985910193983164,
      "Q": 0.25457185396282284,
      "R": 0.8876252532581885,
      "S": 0.9666285451753049,
      "T": 0.844673290513323,
      "U": 0.7197780750138629,
      "V": 0.5553343936627285,
      "W": 0.4609548820469999,
      "X": 0.39474108394835916,
      "Y": 0.5415789978609669,
      "Z": 0.36430521157268136,
      "?": 1.9925655864549416
    },
    "early_game_modifiers": {
      "A": 1.303503231424068,
      "B": -0.09348598325693949,
      "C": -0.3787913453169028,
      "D": 0.6330143806973559,
      "E": 1.0970516602138969,
      "F": -0.4188581857956849,
      "G": 0.5396254803883044,
      "H": -0.05494621233885937,
      "I": 1.0382611591422035,
      "J": -0.9221813368412651,
      "K": -0.6807036195286215,
      "L": 1.26597528686548,
      "M": 0.4721901553307818,
      "N": 1.481282348134613,
      "O": 1.1469762702310038,
      "P": 0.3503591355981976,
      "Q": -1.4450000000000052,
      "R": 1.445895968122608,
      "S": 1.174284454460586,
      "T": 1.352618010031107,
      "U": 0.7815888133992902,
      "V": -0.7518083031626938,
      "W": -0.10948001734104709,
      "X": -0.6221411247895615,
      "Y": 0.11868269398085557,
      "Z": -1.552874316655569,
      "?": 2.0
    },
    "endgame_modifiers": {
      "A": 0.0,
      "B": 0.0,
      "C": 0.0,
      "D": -0.20825000000000016,
      "E": 0.0,
      "F": 0.0,
      "G": 0.2512500000000002,
      "H": 0.0,
      "I": -0.20825000000000016,
      "J": 0.0,
      "K": -0.28475,
      "L": 0.20424999999999968,
      "M": 0.0,
      "N": 0.0,
      "O": 0.1636250000000001,
      "P": 0.0,
      "Q": 0.0,
      "R": 0.0,
      "S": 0.0,
      "T": 0.0,
      "U": -0.18700000000000014,
      "V": -0.5779999999999984,
      "W": -0.6332499999999981,
      "X": 0.0,
      "Y": -0.458999999999999,
      "Z": -0.28475,
      "?": 0.0
    }
  },
  "model_version": "adaptive_v1.0"
}