{
  "main_weights": [
    -65.12918149589329,
    -6.014492570891759,
    -15.971435263096797,
    23.69441072145776,
    -74.32182518094596,
    -11.732623869505854,
    -4.419849416949051,
    272.05918038902075
  ],
  "target_weights": [
    -70.17347824078183,
    -2.6873901935283993,
    -16.1394016736032,
    17.454171062545306,
    -71.66454426723548,
    -14.415324169738907,
    -6.948410254633745,
    280.63785318428916
  ],
  "num_features": 8,
  "learning_rate": 0.01,
  "epsilon": 0.24672968473045437,
  "gamma": 0.9,
  "training_episodes": 1982,
  "total_updates": 290720,
  "target_updates": 90,
  "adaptive_timing": {
    "transition_points": [
      0.7,
      0.13895000000000018
    ],
    "urgency_levels": [
      0.6619536603294238,
      0.8958331471705246,
      1.0
    ],
    "score_gap_modifier": 0.5,
    "rack_quality_modifier": 0.05,
    "opponent_modifier": 0.0
  },
  "adaptive_tiles": {
    "strategic_multipliers": {
      "A": 0.9155832359154404,
      "B": 0.7581788370827068,
      "C": 0.5262317629510301,
      "D": 0.7865450332567347,
      "E": 0.8170470438049041,
      "F": 0.5863085306973375,
      "G": 0.6051593402718048,
      "H": 0.8167177481978999,
      "I": 0.5911314950108123,
      "J": 0.31040902480946275,
      "K": 0.9642869874374846,
      "L": 0.7287925988688879,
      "M": 0.7939170516485937,
      "N": 0.585838321864773,
      "O": 0.7555141848046858,
      "P": 1.0036161277128788,
      "Q": 0.3161263841788437,
      "R": 0.6122492717523,
      "S": 0.9353951199222146,
      "T": 0.7649383226958275,
      "U": 0.4515961817059227,
      "V": 0.4244277843271782,
      "W": 0.6540856153226525,
      "X": 0.4190946782652189,
      "Y": 0.5787334531147258,
      "Z": 0.3519505323942772,
      "?": 1.3438708950241125
    },
    "early_game_modifiers": {
      "A": 2.0,
      "B": 1.8529291666666716,
      "C": 2.0,
      "D": 1.9931562500000002,
      "E": 2.0,
      "F": 2.0,
      "G": 1.9972661044973532,
      "H": 2.0,
      "I": 1.9991071428571427,
      "J": -1.7379986111111227,
      "K": 2.0,
      "L": 1.9964999999999997,
      "M": 2.0,
      "N": 2.0,
      "O": 2.0,
      "P": 2.0,
      "Q": -2.0,
      "R": 1.974926587301588,
      "S": 2.0,
      "T": 2.0,
      "U": 0.12907676640488183,
      "V": -1.5526337651654862,
      "W": 1.9883451923076927,
      "X": -2.0,
      "Y": 1.7691249462772178,
      "Z": -0.9110157738095243,
      "?": 2.0
    },
    "endgame_modifiers": {
      "A": 2.0,
      "B": 2.0,
      "C": -2.0,
      "D": 1.8320852858946601,
      "E": 1.9950771582498017,
      "F": -0.40518673726063237,
      "G": -0.9033027539383747,
      "H": 2.0,
      "I": 1.8775255377750002,
      "J": -2.0,
      "K": 2.0,
      "L": 1.6911762935565082,
      "M": 2.0,
      "N": 1.6049307503244585,
      "O": 1.997215979717032,
      "P": 2.0,
      "Q": -1.6071142857142824,
      "R": -0.16802743600536976,
      "S": 2.0,
      "T": 2.0,
      "U": -1.360719759941612,
      "V": -1.8169124999999922,
      "W": -1.6847641804954099,
      "X": -2.0,
      "Y": 1.833722916666662,
      "Z": -2.0,
      "?": 2.0
    }
  },
  "model_version": "adaptive_v1.0"
}